#ifndef MICRO_TEMP_NET_WEIGHTS_H
#define MICRO_TEMP_NET_WEIGHTS_H

const float conv1_weight[] = {
    -0.30469534f, -0.31675905f, -0.46572444f, 0.08476336f, -0.40051186f, 0.04333469f, -0.26040888f, -0.75199449f,
    -0.68680632f, -0.47867870f, -0.66220796f, -0.61007243f, 0.40840289f, 0.22735827f, 0.06361986f, 0.43049511f,
    0.45709750f, 0.05377093f, 0.11497004f, -0.16525021f, -0.39618868f, -0.37475547f, 0.13355547f, -0.39845130f,
    -0.30829668f, -0.55289173f, -0.48487109f, 0.08910092f, 0.50167894f, 0.57699633f, -0.05206734f, 0.40907443f,
    0.31309447f, -0.04387476f, 0.22021683f, 0.22421049f,
};

const float conv1_bias[] = {
    0.50343853f, 0.43174526f, -0.18743667f, 0.00506647f,
};

const float conv2_weight[] = {
    0.16390514f, 0.20341390f, -0.04889365f, -0.09528148f, 0.30563542f, 0.23891462f, -0.11326463f, 0.11330858f,
    0.12826206f, 0.16224214f, 0.21831718f, 0.22041699f, 0.36611226f, 0.04277826f, 0.00984759f, 0.18402609f,
    -0.03509371f, 0.13711055f, -0.04606007f, -0.01297775f, 0.07208281f, 0.09344588f, 0.31643268f, 0.18033408f,
    -0.23311582f, 0.13895999f, 0.25136441f, 0.07114980f, 0.21482091f, 0.13687532f, 0.22040777f, 0.01833129f,
    -0.13409860f, 0.24836990f, 0.18910097f, -0.00519234f, -0.12011647f, 0.00076201f, 0.16531298f, 0.13008726f,
    -0.23047054f, 0.00901909f, 0.25746283f, 0.13293414f, 0.07285155f, 0.10986914f, 0.15434918f, 0.40136012f,
    -0.21699122f, 0.36379936f, 0.29350191f, -0.14063135f, -0.14536294f, -0.18221910f, 0.08515358f, 0.18182266f,
    0.02491526f, -0.22311811f, -0.28788856f, -0.22464363f, 0.06572615f, 0.03788596f, 0.23866801f, 0.20181030f,
    0.04248429f, -0.04902079f, 0.32690203f, 0.43719378f, 0.14788674f, 0.17221662f, -0.00496450f, 0.16148973f,
    -0.14337446f, -0.22383422f, -0.07913299f, -0.20393048f, -0.11432812f, -0.09445792f, -0.01721632f, -0.05554026f,
    -0.10621893f, -0.00321143f, 0.01648101f, 0.10129208f, -0.00668083f, 0.06606817f, 0.06655850f, 0.11724716f,
    -0.02104447f, 0.18126255f, -0.25921458f, -0.19702317f, -0.13890079f, -0.21503305f, -0.31815442f, -0.10067133f,
    -0.15773959f, -0.10205564f, -0.16008437f, 0.33441433f, 0.40547365f, 0.20551296f, 0.37300795f, 0.20842506f,
    0.31023797f, 0.30320549f, 0.10622869f, 0.09346766f, -0.05219308f, -0.07511480f, 0.21492475f, -0.08449024f,
    0.04576506f, 0.26524916f, -0.10057759f, -0.08800712f, 0.27743283f, 0.11556929f, 0.32408071f, 0.12475833f,
    -0.15522836f, -0.18047671f, 0.32931840f, 0.47355956f, 0.22519442f, 0.07139186f, 0.07730261f, 0.22334947f,
    0.25078174f, -0.04322245f, 0.11067504f, 0.25733685f, -0.16506521f, 0.16082439f, 0.26180309f, -0.09816927f,
    0.18354979f, 0.09631875f, 0.45772254f, 0.35435349f, 0.02068966f, -0.11846053f, 0.23435906f, 0.00134729f,
    0.25422806f, 0.34290972f, 0.23642339f, 0.20660292f, -0.01827629f, 0.16826402f, 0.00833660f, 0.20226648f,
    0.28472427f, 0.06762953f, -0.23514836f, -0.39358878f, 0.38976884f, 0.41856772f, 0.40122476f, -0.07247018f,
    -0.05461855f, -0.18252264f, 0.31517956f, 0.18726908f, 0.15676524f, -0.02317244f, 0.22074457f, 0.16510542f,
    0.24272300f, 0.16168045f, 0.18810292f, -0.07578917f, 0.22295311f, 0.23603268f, -0.02429088f, 0.24672772f,
    0.06841960f, 0.14172359f, 0.20450437f, 0.02581186f, -0.08642151f, 0.10259046f, -0.03615747f, -0.15413557f,
    0.12610650f, 0.26078254f, 0.14793220f, -0.13928272f, 0.17141594f, 0.09249161f, 0.13010709f, 0.14702964f,
    -0.37073663f, 0.07689684f, -0.08404077f, 0.02176065f, -0.06171293f, 0.30001894f, -0.05610595f, 0.01653457f,
    -0.16850965f, 0.09313102f, -0.00176856f, 0.05608175f, -0.16674337f, 0.01117048f, -0.17465512f, 0.12623595f,
    0.08103549f, 0.06967891f, 0.19641621f, 0.25522426f, 0.30417317f, -0.04298069f, 0.17836514f, -0.06573486f,
    0.10223218f, 0.31377980f, 0.12708782f, 0.05235853f, 0.32552353f, 0.14608508f, 0.05599593f, 0.05983873f,
    0.00939967f, 0.37452289f, 0.17564668f, -0.02353488f, -0.16305038f, 0.16763894f, -0.13759188f, 0.27511880f,
    0.23189996f, 0.41831237f, -0.21573919f, -0.07910986f, -0.04345270f, 0.13087535f, 0.05555570f, -0.14787085f,
    -0.19481976f, -0.20177436f, -0.11180390f, 0.00445089f, -0.12851873f, 0.13850352f, 0.02737452f, 0.12924564f,
    0.08236050f, -0.14044805f, -0.09744412f, -0.18027806f, 0.01613372f, 0.20245549f, 0.33860454f, 0.10592063f,
    0.12013575f, 0.25854641f, 0.06509414f, 0.25844309f, 0.23889361f, -0.04159673f, -0.08608016f, -0.15082645f,
    0.25761127f, 0.44122973f, 0.42049226f, 0.05927943f, -0.02982154f, -0.14486755f, 0.00008461f, 0.26912200f,
    0.40977311f, 0.14516193f, 0.23497388f, 0.10225163f, 0.15207496f, 0.32522044f, 0.37077412f, 0.19384590f,
    0.14176273f, -0.03022945f, 0.08171095f, -0.03262848f, -0.09069540f, -0.05272459f, -0.04560019f, 0.04800553f,
};

const float conv2_bias[] = {
    0.12658203f, 0.18377821f, 0.25560844f, -0.14222743f, 0.21177211f, 0.21512945f, 0.08448104f, -0.03666233f,
};

const float fc1_weight[] = {
    0.04644581f, 0.01398323f, 0.05429433f, 0.13893378f, 0.11663044f, 0.08660699f, 0.03777630f, 0.02913527f,
    -0.02554051f, -0.01013794f, 0.06630781f, -0.04715821f, 0.02961321f, 0.00138072f, -0.00398316f, 0.05745841f,
    0.00091173f, -0.03496761f, -0.01135796f, -0.00771231f, -0.01364002f, 0.02235198f, 0.02344058f, 0.05212747f,
    0.05025717f, 0.02898663f, 0.07498008f, 0.01651156f, 0.05641569f, 0.04984012f, 0.07241987f, 0.11937157f,
    0.07094074f, 0.05851774f, 0.02351866f, 0.00211476f, 0.07390448f, -0.08068423f, 0.04680689f, 0.00764543f,
    0.00455263f, -0.10449798f, 0.01524937f, -0.07973544f, -0.02206726f, -0.10668887f, 0.02332014f, -0.00128803f,
    -0.01490970f, 0.14381397f, -0.04228109f, -0.02419658f, -0.05198813f, 0.02188893f, 0.08246487f, 0.14626889f,
    -0.07125447f, -0.06748801f, -0.04077585f, -0.02634546f, 0.11000191f, -0.04096159f, -0.10626669f, -0.22941466f,
    0.10627139f, 0.00778614f, -0.02179077f, -0.11329497f, -0.00815539f, -0.02543868f, 0.00059403f, -0.02249709f,
    0.02771581f, -0.10445879f, -0.05211602f, -0.01877930f, -0.02240235f, 0.02174854f, 0.04302501f, 0.12670259f,
    0.12064563f, 0.12025716f, 0.17690729f, 0.09504987f, -0.07991952f, 0.01533137f, 0.08202053f, 0.05572058f,
    0.10434613f, 0.02384359f, -0.18118009f, 0.04075288f, 0.10755244f, -0.11178243f, 0.06370497f, -0.21397093f,
    0.10275456f, -0.00316349f, -0.05997933f, -0.04575799f, -0.08101674f, -0.06709349f, -0.09194571f, -0.10132531f,
    -0.15694620f, -0.05865242f, -0.10071918f, -0.17793150f, -0.03784978f, -0.10081699f, -0.00809477f, -0.04964929f,
    -0.02142415f, -0.05726003f, 0.02328200f, 0.03447922f, 0.09498841f, 0.03470352f, 0.00937293f, -0.04579671f,
    0.01628631f, 0.01962104f, 0.06389754f, -0.00509818f, 0.03211017f, 0.02921502f, 0.06739244f, 0.11752146f,
    0.11518288f, 0.09672257f, 0.01670495f, 0.10421903f, 0.06784087f, 0.06535991f, 0.09434173f, -0.01096073f,
    0.00164969f, -0.05101474f, -0.05614522f, -0.02703908f, -0.10096493f, -0.26122126f, -0.13384110f, -0.12611097f,
    -0.05735657f, -0.03553739f, 0.02764804f, 0.09952765f, 0.04678470f, -0.01784751f, 0.03592853f, -0.08483848f,
    -0.03450165f, -0.05130572f, -0.03922651f, -0.03250326f, -0.02677072f, -0.23806185f, -0.11791973f, -0.06075068f,
    0.03043662f, -0.06414809f, -0.01615971f, -0.21681592f, -0.13995096f, 0.05221566f, 0.07398202f, 0.01273597f,
    0.03558909f, -0.13816641f, -0.14980575f, 0.04394585f, 0.05104850f, 0.09287010f, 0.10927866f, -0.12309577f,
    0.08392040f, 0.02985166f, 0.00264203f, 0.11871031f, 0.03690942f, -0.18045910f, 0.21164435f, -0.15377681f,
    -0.04038819f, -0.28861061f, -0.05207812f, -0.26516375f, 0.12852032f, -0.17913099f, -0.07495834f, -0.28340259f,
    0.04128884f, 0.06107354f, 0.06175772f, 0.08217708f, 0.09025957f, 0.03626120f, 0.16697383f, 0.05918178f,
    0.05635205f, -0.04046125f, 0.00224859f, -0.04433224f, 0.10150603f, 0.00138560f, -0.04182125f, -0.00964347f,
    -0.04989680f, -0.02498819f, 0.01400437f, 0.03279116f, -0.13799310f, -0.14468971f, -0.03485347f, -0.05294770f,
    0.03540023f, 0.15682504f, -0.13398083f, -0.17621864f, -0.23299852f, -0.06992082f, 0.08368268f, 0.06855849f,
    0.01237677f, -0.01680012f, -0.05240162f, -0.07422825f, 0.07179303f, -0.14219445f, 0.11265869f, 0.11665937f,
    0.09847667f, -0.03811323f, -0.03066881f, -0.10005669f, -0.03586659f, 0.05522306f, -0.00568671f, 0.00923915f,
    -0.06168513f, 0.06525520f, 0.04534490f, 0.17425127f, 0.10316923f, 0.13510700f, 0.01781767f, 0.13686681f,
    0.12374499f, 0.11563239f, 0.39569232f, -0.04002231f, 0.10735608f, -0.02754716f, 0.16661273f, 0.19257328f,
    0.17985980f, 0.00196942f, 0.11534486f, -0.02367914f, 0.04779183f, 0.07445953f, 0.00855773f, 0.02555213f,
    -0.00702840f, -0.07140947f, -0.05927716f, 0.03009015f, -0.03115749f, 0.10528505f, 0.03088679f, 0.05396002f,
    0.15196295f, 0.02135083f, 0.13514592f, 0.03155676f, 0.09850496f, 0.08357035f, 0.09797320f, -0.00952266f,
    0.08031035f, -0.02642717f, 0.11088817f, -0.01269874f, 0.05643439f, -0.11777544f, -0.06571057f, -0.18700501f,
    0.00738218f, -0.07291894f, 0.19037676f, 0.05880624f, 0.11709787f, 0.13177039f, 0.06926247f, 0.02127953f,
    0.13839231f, 0.17725164f, 0.16630431f, 0.12723404f, 0.12197377f, 0.01260930f, 0.02550451f, 0.08581585f,
    0.06796600f, 0.12175860f, 0.09856838f, -0.04529476f, -0.05483079f, 0.13948466f, 0.14053671f, 0.10628170f,
    0.05874707f, -0.20924954f, -0.06712450f, 0.11282173f, 0.17764944f, 0.10226867f, -0.21237701f, -0.05842800f,
    -0.03187276f, -0.00237300f, 0.05919641f, 0.06698336f, -0.01623702f, 0.16487840f, -0.01289063f, -0.01933860f,
    0.00562670f, -0.07896647f, 0.15790093f, 0.11236582f, 0.04761375f, 0.12083751f, 0.09880286f, 0.09927174f,
    0.06679950f, 0.02082454f, 0.06701833f, 0.05079452f, 0.08795178f, 0.01882602f, 0.11172540f, 0.00467944f,
    -0.01408402f, -0.01109026f, 0.04506661f, 0.03709975f, -0.00912813f, -0.10183027f, -0.14670496f, -0.04263014f,
    -0.03727135f, -0.03534358f, -0.03327072f, -0.03354735f, -0.14813301f, -0.05138213f, 0.06194317f, -0.06510192f,
    0.14286803f, 0.15702954f, -0.08287911f, -0.18856266f, -0.17647223f, -0.31318945f, -0.13251927f, -0.03783797f,
    -0.15164167f, 0.03631814f, -0.11612339f, -0.13063678f, 0.01642868f, -0.12466428f, 0.01431033f, 0.11470997f,
    0.02712157f, -0.11012010f, -0.06093063f, -0.21101941f, -0.02751644f, 0.01411555f, 0.08256108f, -0.12882283f,
    0.01600984f, -0.01828026f, -0.04984473f, 0.01858928f, 0.03176644f, 0.04149493f, 0.04200173f, -0.02434954f,
    0.02728952f, -0.00307133f, -0.03159428f, 0.03566597f, -0.04106290f, -0.00625044f, 0.00584595f, -0.04799023f,
    -0.02533079f, -0.02053962f, 0.02669013f, -0.02967712f, 0.00331095f, -0.00691020f, 0.04079636f, 0.03804903f,
    -0.04812744f, -0.01303489f, -0.03525946f, 0.00022717f, -0.01220693f, -0.04146431f, -0.00459947f, -0.01372660f,
    -0.04611275f, 0.03299921f, -0.00899034f, -0.03579907f, -0.03627989f, -0.03016106f, 0.01357499f, 0.03388136f,
    0.00653329f, -0.02000245f, -0.00436260f, -0.03577271f, 0.00081500f, -0.04704053f, -0.01054422f, -0.01053254f,
    -0.03029501f, 0.04683821f, -0.05274497f, 0.04539891f, -0.03046003f, -0.03814957f, 0.02599258f, -0.00683835f,
    -0.02671079f, 0.01695205f, -0.01725268f, -0.04819839f, 0.00566741f, -0.05580045f, 0.00598923f, -0.03996375f,
    -0.00966183f, 0.01046666f, 0.01796287f, -0.04124231f, 0.00920725f, 0.01041440f, 0.02846009f, -0.02485786f,
    0.00922150f, -0.02254978f, 0.02509645f, -0.01090659f, -0.00270703f, 0.04442909f, -0.01506633f, 0.00325256f,
    -0.01262534f, 0.02604551f, -0.01640943f, -0.03422183f, -0.01994417f, -0.05263345f, -0.02160334f, 0.04064126f,
    0.03372825f, 0.04596890f, -0.03570176f, -0.00538131f, -0.05495647f, -0.01409071f, -0.04221970f, 0.00564801f,
    -0.05413755f, -0.04742537f, 0.01588619f, -0.02713210f, 0.02983929f, 0.02753437f, 0.02714949f, 0.02524639f,
    -0.02740572f, 0.04453858f, 0.03176218f, 0.00992156f, -0.01576413f, 0.03908575f, -0.03751571f, -0.03620111f,
    0.04258129f, -0.05316222f, 0.02220858f, -0.04040387f, 0.02849953f, 0.02721040f, 0.02002231f, -0.02658579f,
    -0.04553454f, -0.02862305f, -0.04899869f, 0.00952109f, -0.04576981f, 0.03676208f, 0.02225807f, 0.02245673f,
    0.01750134f, -0.00766881f, 0.01154537f, 0.01664159f, -0.02631291f, 0.02012208f, 0.02080933f, 0.01850705f,
    0.03784350f, -0.03821494f, -0.05515586f, 0.03308847f, 0.01376008f, 0.01706465f, -0.00472941f, -0.04016117f,
    -0.01590683f, -0.01733861f, -0.00585502f, 0.01134370f, 0.03538229f, 0.04912926f, -0.02444644f, -0.00327784f,
    0.02554655f, 0.03664085f, -0.02951032f, -0.00433945f, -0.03479544f, 0.02860513f, -0.00892203f, 0.03315519f,
    -0.01585212f, -0.00164117f, -0.00263202f, 0.03017920f, 0.03111099f, -0.03058366f, -0.05074200f, 0.01101695f,
    -0.03453635f, 0.00818442f, -0.04393925f, 0.03783549f, 0.03619897f, 0.00076707f, 0.02690312f, 0.02672419f,
    0.01806358f, 0.01325012f, 0.02409983f, 0.03213172f, -0.02142527f, 0.00253912f, -0.04823216f, -0.03377109f,
    -0.04574850f, -0.03280683f, 0.01813775f, 0.04905805f, 0.04958453f, 0.04067330f, 0.00378388f, -0.03039602f,
    -0.01890416f, 0.02327282f, 0.02245557f, -0.05356698f, 0.01601939f, -0.04937343f, -0.04602068f, -0.04590059f,
    0.03259263f, -0.00811598f, 0.00024594f, -0.03288135f, 0.04211050f, -0.03220430f, -0.00079519f, 0.02310746f,
    -0.01265282f, 0.03377005f, -0.02149132f, 0.00841163f, -0.00891500f, -0.01668307f, -0.05092273f, -0.00683200f,
    0.03183632f, -0.02048850f, 0.02291885f, -0.03430759f, -0.01005455f, -0.05115157f, -0.04762581f, -0.05107759f,
    0.04410528f, -0.01182341f, -0.02798468f, -0.05137222f, -0.02937500f, 0.03746488f, 0.02130307f, -0.00002813f,
    -0.01872722f, -0.01280540f, -0.00163405f, 0.04158062f, 0.04436572f, 0.03108428f, 0.00106466f, 0.01788536f,
    0.03448399f, 0.01975675f, -0.01467361f, -0.00245442f, -0.04381829f, 0.02639332f, 0.03013628f, -0.00154137f,
    0.03369255f, -0.02831870f, 0.03867792f, 0.03687204f, 0.01305048f, 0.03957746f, -0.04335712f, -0.00287561f,
    0.04065514f, -0.02758620f, 0.02486124f, 0.03988433f, -0.00546076f, 0.02300861f, 0.01658349f, -0.02702982f,
    -0.00503610f, -0.00170291f, -0.04923520f, -0.01852876f, -0.01374738f, -0.00005164f, -0.04768566f, 0.02296364f,
    0.00915376f, 0.03830589f, 0.03350748f, 0.03357677f, -0.05553819f, 0.04508287f, 0.02535078f, -0.03867318f,
    -0.04718651f, -0.05271488f, 0.01038109f, -0.01514429f, 0.00059754f, -0.00176241f, -0.01047503f, -0.02310484f,
    0.02560415f, 0.00035933f, -0.00689520f, -0.03391466f, 0.02893161f, 0.03452413f, 0.04379566f, -0.00642029f,
    -0.00844928f, -0.00742459f, -0.01644247f, 0.03964821f, -0.03036440f, 0.01401548f, -0.04041567f, 0.04729135f,
    0.01442920f, -0.00450629f, -0.02619750f, 0.03285137f, -0.01309395f, -0.04360994f, 0.02951531f, 0.02037768f,
    0.02039568f, 0.04195118f, 0.01503234f, 0.00441467f, -0.00857512f, 0.02856953f, -0.03241366f, 0.01913505f,
    -0.03670187f, -0.03560780f, -0.02535054f, 0.00405463f, -0.01033653f, -0.00529173f, -0.01819672f, -0.04259154f,
    0.02812184f, -0.00439982f, 0.04690684f, -0.03858718f, 0.03477678f, -0.04248398f, 0.00929852f, -0.04171018f,
    0.01779784f, 0.04723824f, 0.03869393f, 0.00805388f, -0.03919078f, -0.01722383f, 0.04196426f, -0.03628701f,
    -0.04100480f, 0.02710458f, -0.02645474f, -0.02636707f, -0.00943954f, -0.01045478f, 0.04405659f, -0.02773786f,
    -0.04373863f, -0.01636199f, -0.03577400f, 0.03620083f, 0.04804342f, 0.04349808f, -0.04211174f, -0.04347776f,
    0.02663857f, 0.02374393f, -0.01416073f, 0.03867475f, -0.01793980f, -0.01670276f, -0.02924284f, -0.04104124f,
    0.01474535f, 0.00850992f, -0.03525852f, 0.01755345f, 0.05057633f, -0.04500066f, 0.04731168f, -0.00371593f,
    0.03013548f, 0.04591061f, -0.02090799f, -0.03328390f, -0.05627326f, -0.03563229f, -0.00880104f, 0.00797138f,
    -0.03522104f, -0.05231275f, 0.01986476f, -0.02682442f, -0.04627462f, -0.03503124f, 0.03579443f, 0.03569488f,
    -0.00924447f, -0.02293248f, -0.01729083f, 0.00607405f, 0.01620024f, -0.02570880f, -0.04166959f, -0.02728581f,
    0.01251951f, -0.01097052f, 0.02650990f, -0.00735199f, 0.02221523f, -0.03081953f, 0.01233222f, -0.03716506f,
    -0.03244239f, -0.05543503f, 0.02478755f, -0.06450277f, -0.03669904f, 0.03680936f, 0.02496321f, 0.00677876f,
    0.00734820f, -0.02260146f, -0.05904527f, -0.05531792f, -0.06245632f, 0.03263515f, -0.02982147f, 0.00353896f,
    -0.05938712f, -0.06088405f, 0.01941649f, -0.01579943f, 0.03286599f, -0.02811916f, -0.02607651f, -0.01106270f,
    -0.02832837f, 0.02335225f, 0.00755701f, -0.03937059f, -0.04682107f, -0.04047028f, 0.01118283f, -0.04125237f,
    -0.00048164f, -0.05205606f, -0.00217486f, -0.00534619f, -0.05871212f, -0.00806207f, -0.00791381f, -0.04700971f,
    0.02028728f, -0.01737478f, -0.00592395f, 0.00933190f, -0.02643505f, 0.05204615f, 0.04143336f, -0.01863759f,
    0.01825924f, 0.02156328f, 0.04801229f, -0.03246485f, 0.00487888f, -0.00612918f, 0.01033473f, -0.03653623f,
    -0.02523411f, -0.03012344f, 0.03626169f, -0.02410500f, -0.03159473f, -0.02737830f, -0.02509194f, -0.04767140f,
    0.02630289f, 0.00959183f, -0.01570757f, -0.02224692f, 0.00200885f, -0.00536270f, 0.05331637f, -0.04719350f,
    0.00033415f, -0.00955831f, 0.05506162f, 0.03842817f, 0.03154406f, -0.02423789f, 0.04079250f, 0.02180447f,
    -0.03890047f, 0.01950850f, -0.00761828f, 0.00065175f, 0.00322096f, -0.03543452f, -0.02164446f, -0.01837340f,
    0.00806339f, 0.02795407f, -0.00965070f, 0.06247426f, -0.03027842f, 0.01060188f, 0.04743610f, 0.03294991f,
    -0.00125030f, 0.02599838f, -0.05111852f, -0.03526301f, -0.03868342f, 0.03393709f, 0.02023631f, -0.03970952f,
    0.02351364f, -0.02516478f, -0.00915641f, -0.01590501f, 0.00721501f, -0.00915689f, 0.01751339f, 0.02132369f,
    -0.04025985f, 0.06103902f, 0.00831697f, 0.04958760f, -0.02237635f, 0.00323027f, 0.00576972f, 0.01148994f,
    0.02711862f, 0.00575334f, -0.01728015f, 0.00310562f, -0.04455170f, 0.00971567f, 0.00010738f, 0.02561167f,
    0.01719826f, -0.05851100f, -0.01046821f, 0.02344691f, -0.03727565f, -0.04807508f, 0.03082294f, -0.02764831f,
    -0.05135855f, -0.02050125f, -0.02835261f, -0.04401966f, 0.00586744f, -0.02354822f, 0.00708801f, -0.06304011f,
    0.01629894f, 0.01245359f, -0.04079994f, 0.03317434f, -0.05290130f, -0.03042028f, 0.01967035f, 0.05225565f,
    -0.03624674f, -0.02262351f, -0.01716016f, -0.05617221f, 0.03508018f, -0.03534852f, 0.02777144f, -0.01633751f,
    -0.01412042f, -0.04390706f, 0.00867937f, -0.00278320f, -0.04480384f, -0.00206780f, -0.02170120f, -0.01072363f,
    0.03452228f, -0.00809174f, -0.01233495f, -0.02251994f, 0.00791067f, 0.02355307f, 0.03815896f, 0.01868345f,
    -0.03271193f, -0.03702468f, -0.01073253f, -0.04519395f, -0.01587432f, 0.01556748f, 0.02135441f, -0.00970502f,
    -0.02080270f, 0.02633025f, 0.01587005f, -0.02095394f, -0.02461730f, 0.02289276f, 0.04472464f, -0.02701101f,
    -0.05233582f, 0.00596524f, 0.00324779f, -0.02320433f, 0.04683487f, 0.02622879f, -0.01662275f, -0.02245860f,
    -0.03810010f, -0.02051758f, 0.04040925f, -0.02002890f, 0.02344880f, -0.01677184f, -0.04038692f, -0.02714841f,
    -0.04138663f, 0.03614254f, 0.01489641f, -0.00232093f, -0.06326312f, 0.00928287f, -0.04841319f, -0.03541509f,
    0.01200368f, -0.00978078f, -0.01586468f, -0.04459453f, -0.02747130f, -0.05844885f, -0.02408452f, 0.01743084f,
    0.05966588f, -0.00262671f, 0.02462629f, 0.05437104f, 0.05494764f, -0.00913849f, -0.03399751f, -0.00480621f,
    -0.03690098f, 0.01113717f, -0.04374145f, 0.04470911f, 0.03982726f, -0.04074068f, -0.02465419f, -0.03844840f,
    -0.01035354f, 0.02183097f, -0.03511251f, 0.00230656f, -0.03242497f, 0.03345645f, -0.03376927f, 0.02992212f,
    0.00309745f, 0.00010708f, 0.01820549f, -0.02984910f, -0.01788777f, 0.02320682f, -0.04141960f, -0.01788285f,
    -0.00627983f, 0.03182031f, -0.00728497f, 0.02632847f, 0.01776810f, -0.03141737f, 0.04609112f, 0.02439930f,
    0.00373929f, 0.01855019f, 0.01443508f, -0.00531981f, 0.04747988f, -0.04007834f, -0.02940784f, -0.03234041f,
    -0.01362045f, 0.00601147f, -0.00829998f, -0.02734723f, 0.05192342f, 0.03901338f, -0.03002639f, 0.02336591f,
    -0.01061714f, -0.00062162f, -0.00250829f, 0.04400757f, 0.03550915f, 0.02948041f, -0.04660444f, -0.02876236f,
    0.04872429f, -0.01887220f, -0.00526558f, -0.03508633f, 0.02043814f, 0.00483097f, 0.02816480f, 0.01524875f,
    -0.04507723f, -0.00897590f, -0.05986802f, 0.00544049f, 0.03573114f, 0.02296250f, 0.00999502f, 0.02825565f,
    -0.01902978f, -0.01468792f, -0.04318489f, -0.03481499f, 0.00316807f, -0.00523255f, 0.04508960f, 0.04111840f,
    -0.03701635f, 0.01549644f, -0.02285756f, -0.04526222f, 0.02354801f, 0.01261729f, -0.03914987f, -0.04976045f,
    0.02743154f, -0.01192981f, -0.00656480f, 0.03682146f, 0.02438015f, -0.04579203f, -0.00420123f, 0.02843076f,
    0.03292301f, -0.01597469f, 0.01627481f, -0.05591386f, 0.00316836f, -0.05969241f, -0.04011517f, -0.01024174f,
    -0.01269807f, -0.03222963f, -0.04823455f, 0.01718317f, -0.02415309f, -0.04424008f, 0.00970655f, -0.02015801f,
    -0.01282420f, -0.00893130f, -0.04197279f, 0.03164006f, -0.04093659f, -0.01638431f, -0.00222134f, -0.02219615f,
    0.01144756f, 0.01289797f, -0.01648372f, -0.03863036f, -0.00561928f, -0.05398078f, -0.00395545f, -0.06017139f,
    -0.03902006f, 0.02695447f, -0.03234264f, -0.03280582f, -0.02464805f, 0.04490216f, -0.03951654f, 0.04383684f,
    -0.02541492f, 0.00436788f, 0.03030423f, 0.04287839f, -0.05325119f, -0.03855253f, -0.00464178f, -0.01542516f,
    0.04001139f, 0.03395767f, -0.00085338f, -0.05021969f, 0.00718892f, -0.00962441f, -0.04396269f, 0.04479064f,
    0.00728821f, -0.00210803f, 0.03110719f, -0.02330486f, 0.04211986f, -0.01537451f, -0.03086049f, -0.03452660f,
    -0.02133025f, -0.05315463f, -0.01332930f, 0.02094774f, 0.01354990f, 0.02059879f, 0.03946532f, 0.02304488f,
    -0.05604144f, 0.02896621f, -0.04386212f, -0.00506704f, -0.03107575f, -0.03966256f, -0.00807731f, 0.02407473f,
    -0.01481630f, -0.03262323f, 0.01671793f, 0.03661226f, -0.02244203f, 0.02761406f, 0.03519578f, -0.02991758f,
    0.02771757f, -0.04097386f, 0.04237528f, -0.04989077f, -0.02086205f, 0.04862124f, 0.02585478f, -0.03499534f,
    0.00888088f, -0.03802730f, 0.04459310f, 0.03461938f, 0.03529037f, 0.02166663f, 0.01653876f, -0.03760517f,
    -0.04022603f, 0.04786193f, -0.04879374f, 0.03136113f, 0.03858038f, 0.00811258f, 0.01632118f, -0.00674836f,
    0.00559174f, -0.02240008f, 0.03962072f, -0.02092683f, -0.04810200f, 0.01913551f, -0.05362879f, -0.03578239f,
    0.00332210f, 0.02668001f, 0.05045903f, -0.00375468f, -0.02511268f, -0.00393353f, -0.04716083f, 0.00307614f,
    0.03524580f, 0.00146460f, 0.01997886f, -0.05016932f, 0.01947276f, -0.02447001f, -0.00808161f, 0.01043874f,
    -0.02894227f, 0.00957013f, -0.00370858f, 0.03115611f, -0.00638633f, 0.03727022f, 0.05072053f, -0.02266108f,
    -0.01437547f, -0.03045935f, 0.03678150f, 0.03061400f, -0.04781586f, -0.02956601f, -0.03401666f, -0.05017460f,
    0.04019772f, -0.03912338f, 0.02046696f, 0.00998459f, -0.04438634f, 0.04498942f, 0.02814969f, -0.02042412f,
    0.03406759f, -0.00920500f, 0.02527092f, -0.00286864f, -0.04155977f, -0.04298979f, -0.04463576f, -0.00599718f,
    -0.00501684f, -0.00708693f, 0.02222724f, -0.03518992f, -0.03966790f, 0.01079762f, 0.04516436f, -0.03057280f,
    0.04189057f, -0.05320797f, 0.03690966f, -0.01433505f, 0.03340715f, -0.00945519f, -0.00109711f, -0.01939660f,
    0.03833430f, -0.02401071f, -0.01703938f, 0.02458716f, -0.01338811f, -0.04645585f, -0.00564693f, -0.03685996f,
    0.01364843f, 0.04189669f, -0.01444828f, 0.04958764f, -0.02074138f, -0.04902448f, -0.02941125f, 0.01711652f,
    -0.03319585f, 0.04168455f, 0.00784766f, -0.03411286f, 0.02733434f, 0.00682968f, -0.01806195f, -0.04347986f,
    -0.05066166f, -0.02170724f, 0.00638271f, -0.00021644f, 0.03616323f, -0.04220128f, -0.02766422f, -0.02458083f,
    0.01745061f, 0.03953708f, 0.02679902f, -0.00879463f, -0.02241299f, -0.00543679f, -0.03657554f, 0.03704757f,
    -0.03663250f, -0.04978149f, -0.05470667f, 0.01121427f, -0.02404581f, 0.03252003f, -0.00457276f, -0.04897901f,
    -0.01134223f, -0.01776134f, 0.01435835f, 0.02443680f, 0.00065952f, 0.01469074f, 0.00358804f, 0.03661994f,
    -0.02403307f, -0.05383453f, 0.03004297f, -0.01623847f, 0.01746654f, 0.01695460f, -0.05252452f, -0.00437447f,
    0.00981248f, 0.04284132f, 0.03350422f, 0.04401449f, 0.01417571f, -0.04447968f, 0.00426576f, 0.01426761f,
    -0.01730649f, -0.03598870f, 0.02526144f, -0.02983038f, -0.05578890f, -0.04760849f, 0.03788847f, -0.03488411f,
    0.00107188f, -0.05171432f, -0.02204305f, -0.02830558f, -0.03721931f, -0.02037155f, 0.01022713f, -0.05210332f,
    0.01633968f, -0.03497175f, 0.02397694f, -0.03509618f, -0.02391721f, 0.02242685f, -0.03712415f, 0.01896610f,
    -0.00082378f, 0.04207233f, -0.02840528f, 0.03876526f, 0.03693818f, 0.04257501f, 0.03654802f, 0.01953291f,
    0.04301643f, -0.00960515f, 0.03823686f, 0.00205626f, 0.01106926f, -0.04464506f, 0.03121044f, 0.03859095f,
    -0.00362076f, -0.02040416f, -0.02250634f, 0.03810985f, -0.03502330f, -0.04953607f, -0.04604656f, -0.03772131f,
    0.02010343f, -0.00368999f, 0.02981631f, -0.04292272f, -0.01223546f, -0.01295236f, 0.02552956f, 0.01240413f,
    0.00896945f, -0.01123714f, -0.00247850f, 0.03520507f, -0.03322158f, -0.01529841f, 0.03160473f, -0.05489232f,
    0.01211273f, 0.03640074f, 0.03881422f, -0.03228964f, 0.04298401f, -0.04803447f, -0.01610601f, -0.01768928f,
    -0.03564199f, 0.04433373f, -0.02450477f, -0.02879682f, -0.01811919f, 0.01633207f, 0.04297529f, -0.01582267f,
    -0.02906142f, -0.01655177f, -0.00849649f, 0.03254404f, 0.01386192f, -0.04386607f, -0.03852723f, 0.02245279f,
    -0.00044048f, -0.00914757f, -0.02833588f, -0.01809630f, -0.04984358f, 0.02996676f, 0.02092604f, -0.04409046f,
    -0.00479661f, 0.00522149f, 0.03077825f, 0.01683187f, 0.04260628f, -0.04804648f, -0.03165999f, 0.00524834f,
    0.02787273f, 0.03513349f, -0.04200029f, 0.00273373f, 0.00061745f, -0.02891086f, 0.03239347f, 0.03111298f,
    -0.01563307f, 0.03489942f, 0.02374466f, 0.04278466f, 0.03949305f, -0.02965705f, -0.00673970f, -0.05038593f,
    0.00033890f, -0.04245608f, -0.01684291f, 0.01440848f, 0.03161020f, -0.00073823f, 0.01424444f, -0.01400486f,
    0.03177239f, 0.02344492f, 0.02495297f, -0.03946092f, 0.04223204f, -0.03397262f, -0.01771936f, 0.00864178f,
    -0.05303132f, -0.00398016f, 0.03780363f, -0.03384400f, -0.04488776f, -0.03305363f, -0.02993519f, 0.01418182f,
    -0.05085115f, 0.03362869f, -0.00194342f, 0.01596883f, 0.01455304f, -0.01766958f, 0.03927286f, -0.04200250f,
    0.04115102f, -0.05017452f, 0.01486284f, 0.04279716f, -0.02095963f, -0.00590304f, 0.02493354f, -0.01260195f,
    -0.13635185f, -0.17641824f, 0.00847977f, -0.04446542f, 0.01897761f, -0.07417300f, 0.00771627f, -0.06355137f,
    0.03430939f, -0.06327505f, -0.04315854f, -0.04464570f, 0.09277298f, -0.02368079f, 0.03397024f, 0.06544676f,
    0.07944064f, -0.06674879f, 0.08973509f, 0.06380866f, -0.00012134f, 0.15089744f, 0.10285740f, 0.09098469f,
    0.09491365f, 0.10430893f, 0.04523600f, 0.06697953f, 0.08833963f, 0.11474750f, 0.12038698f, 0.01595028f,
    0.11438593f, -0.01939665f, 0.08530134f, 0.04308986f, -0.00477673f, 0.04773946f, 0.09889392f, -0.00757251f,
    0.09034480f, 0.04170347f, 0.06481352f, 0.01190297f, -0.00280221f, 0.02936987f, 0.03806937f, -0.00148843f,
    0.23027563f, 0.08329742f, -0.12375901f, -0.04862021f, 0.03295103f, 0.10272092f, -0.26635575f, -0.00793013f,
    -0.08166625f, 0.07445127f, 0.15424737f, 0.32752827f, -0.13357896f, 0.12716685f, 0.13685511f, 0.27917895f,
    0.25207761f, 0.08704321f, -0.02358228f, 0.09286641f, 0.19894217f, 0.14841098f, 0.13946183f, 0.08693101f,
    0.10603020f, 0.10851230f, 0.18310149f, 0.18308043f, 0.17304868f, 0.12870911f, -0.20497373f, 0.05737730f,
    0.11234321f, 0.17474510f, 0.11291286f, 0.03600882f, 0.16529815f, 0.19715743f, 0.11322031f, -0.00023087f,
    0.03471393f, -0.07694993f, 0.22213930f, 0.14229597f, 0.17470899f, 0.10762379f, -0.00519997f, 0.15770154f,
    0.12402815f, 0.14985558f, 0.08932313f, 0.10233181f, 0.10729591f, 0.07266994f, 0.11519853f, 0.15030317f,
    0.17659636f, 0.15619054f, 0.12430736f, 0.16095442f, 0.12085458f, 0.16229306f, 0.04954419f, 0.13079050f,
    0.05899299f, 0.10043977f, 0.15474184f, 0.16653842f, 0.13313858f, 0.10138393f, 0.09515078f, 0.10544918f,
    0.15826970f, 0.11722354f, 0.15531662f, 0.17865394f, 0.17568380f, 0.19575992f, 0.14787477f, 0.05246143f,
    0.15263733f, 0.10253314f, 0.11671538f, 0.10117207f, 0.09598646f, 0.08815926f, 0.17837752f, 0.23858017f,
    0.16988999f, 0.16755603f, 0.10221424f, 0.16184583f, 0.19166052f, 0.25435427f, 0.22957276f, 0.21559565f,
    -0.15077275f, -0.17083196f, -0.04299168f, -0.09298274f, -0.05250869f, -0.15910707f, -0.11044344f, -0.14614148f,
    -0.02102701f, -0.10343064f, -0.11131912f, -0.15961190f, 0.05791654f, -0.10923494f, 0.17084885f, 0.02843217f,
    -0.00593033f, -0.15783647f, 0.14835386f, -0.03944787f, 0.14633653f, 0.12129773f, 0.06977215f, -0.06505682f,
    0.12568085f, 0.14015049f, 0.18937364f, 0.07600830f, 0.09607181f, 0.05666572f, 0.04240980f, 0.27649146f,
    0.20416054f, 0.02047273f, 0.12663196f, -0.14232637f, -0.01317501f, 0.16810611f, 0.03473643f, -0.11839719f,
    0.21299416f, -0.10049786f, 0.06213173f, -0.05320189f, -0.08069540f, -0.08322480f, 0.10218639f, -0.02071243f,
    -0.05743777f, -0.14547430f, -0.12710679f, -0.03384815f, -0.02486105f, -0.06251974f, -0.06299730f, -0.12106720f,
    -0.02230430f, 0.00437096f, -0.06641715f, -0.04555195f, 0.02181409f, -0.09835558f, 0.00241893f, 0.05723070f,
    0.05758923f, 0.04896634f, 0.08335967f, -0.00191319f, -0.00126294f, 0.14809906f, 0.13559191f, 0.13050096f,
    0.08393431f, -0.02062193f, -0.07450651f, 0.09174201f, 0.17168424f, 0.18352753f, 0.07178859f, -0.04266529f,
    0.03213636f, 0.12567048f, 0.18889350f, 0.27204186f, -0.08795293f, -0.04088790f, 0.04046702f, -0.00874440f,
    0.07316500f, 0.14346613f, 0.03977303f, 0.03848190f, -0.00154690f, -0.02417503f, -0.04658950f, 0.02222618f,
    -0.04616814f, 0.10528670f, 0.16464715f, 0.10386158f, 0.04163091f, -0.00908495f, 0.10742636f, 0.08462007f,
    0.14700396f, 0.12968893f, -0.07777006f, 0.07584394f, 0.17854635f, 0.15190910f, 0.13739268f, 0.06449370f,
    -0.13867167f, 0.01236768f, 0.17184289f, 0.11278195f, 0.08399904f, 0.03516813f, 0.09544229f, -0.02426836f,
    0.18546222f, 0.19739909f, 0.07148832f, 0.20062992f, 0.16530356f, 0.10675750f, 0.22763163f, 0.15379472f,
    0.04759131f, 0.11901318f, -0.04076137f, -0.02862252f, 0.09628575f, 0.02711429f, 0.07000943f, 0.07263560f,
    0.00588818f, 0.11430357f, 0.10019502f, 0.03652594f, 0.10311554f, 0.16948399f, 0.21208912f, 0.24017720f,
    -0.02391418f, 0.01256122f, 0.22644171f, 0.10550437f, 0.05171311f, 0.15370151f, -0.00991335f, -0.02290077f,
    0.00298219f, 0.05421830f, 0.01130136f, -0.16094539f, -0.00380867f, -0.06200139f, 0.05626616f, 0.07960340f,
    -0.08466530f, -0.16044538f, 0.05416821f, 0.02542652f, 0.02642071f, 0.13538933f, 0.10272169f, -0.14515324f,
    -0.03219170f, 0.10346707f, -0.02754134f, 0.11248822f, 0.02483031f, -0.09089370f, 0.16773596f, 0.31850281f,
    0.08335108f, 0.03735885f, -0.06178270f, -0.09750044f, -0.09340581f, 0.22157329f, 0.10050408f, 0.13486530f,
    0.01398878f, 0.00017236f, -0.08595124f, 0.04364676f, 0.00162902f, -0.07355008f, 0.07975869f, -0.02809237f,
    -0.19330814f, -0.22662027f, -0.14013800f, -0.11572734f, -0.04990506f, -0.14143966f, -0.11200156f, -0.15013674f,
    -0.02284939f, -0.08344573f, -0.03900893f, -0.06867889f, -0.06043467f, -0.09492364f, 0.04943138f, 0.12585957f,
    0.05646561f, -0.00493547f, 0.00542360f, -0.01876167f, 0.06592541f, 0.08816612f, 0.06462601f, -0.07362313f,
    -0.09367213f, -0.11070734f, -0.11560931f, -0.01769245f, -0.02227802f, 0.01695065f, -0.18010199f, -0.07884493f,
    -0.01942265f, -0.05575480f, 0.24323882f, 0.24938753f, -0.05897810f, -0.16666228f, -0.02007169f, -0.06782988f,
    0.07330666f, 0.00656116f, -0.02936416f, -0.00976348f, -0.03869610f, -0.11298939f, -0.05540711f, 0.02471058f,
    -0.03787652f, 0.03145361f, 0.00056620f, 0.00329162f, 0.00066025f, 0.03570491f, 0.02921274f, -0.02734494f,
    -0.04885522f, 0.02182136f, 0.01479102f, 0.01836023f, -0.04845846f, -0.00999824f, -0.02003388f, 0.04380151f,
    -0.00523163f, -0.01394711f, 0.01038809f, 0.00917964f, 0.03654283f, 0.01580940f, -0.02834801f, -0.02246308f,
    0.01255824f, -0.03642313f, 0.02824214f, 0.01853008f, -0.05551356f, 0.00240773f, 0.03416188f, -0.01937010f,
    -0.04208373f, 0.02075162f, 0.02381714f, 0.01554059f, -0.02095437f, -0.04439275f, 0.01266699f, 0.00496980f,
    -0.03940762f, -0.00069278f, -0.05506521f, 0.01048544f, -0.05081361f, 0.00047347f, -0.01788338f, 0.00801905f,
    0.01693522f, 0.01142327f, 0.01600382f, 0.04422370f, -0.03733911f, -0.04611948f, -0.02761989f, 0.00277713f,
    0.03021383f, 0.00966981f, -0.02337715f, -0.04209347f, -0.00124310f, 0.00900205f, 0.03975265f, 0.01201350f,
    -0.03543478f, 0.01104164f, 0.01139679f, -0.00424507f, -0.02983558f, -0.01089394f, 0.02763769f, -0.04527712f,
    0.01830839f, 0.00358168f, -0.01370904f, -0.00508496f, 0.03599687f, 0.04908563f, 0.03744283f, -0.02672363f,
    -0.01717449f, -0.00927111f, 0.01873317f, -0.02041790f, 0.02877963f, -0.04353576f, -0.04316074f, 0.03312395f,
    -0.01397313f, 0.01866709f, 0.02749956f, -0.00068585f, 0.02264311f, -0.01832580f, -0.02606151f, -0.05442771f,
    -0.03073852f, -0.01327758f, 0.00829067f, 0.04340553f, -0.04703763f, 0.02565394f, -0.03107386f, -0.02502630f,
    -0.00727627f, -0.02386677f, -0.04129418f, -0.03293960f, 0.04499235f, -0.04643480f, -0.03953980f, 0.00978042f,
    -0.01547003f, -0.03721181f, 0.02401991f, -0.03189051f, -0.02818555f, -0.02059888f, -0.00514567f, 0.00856368f,
    -0.00466008f, -0.00347043f, -0.04079201f, -0.00059667f, 0.02443551f, 0.00190270f, -0.03663299f, -0.01945335f,
    -0.04471542f, -0.00622650f, 0.01510995f, -0.01980606f, -0.05565931f, 0.02091133f, -0.03805410f, -0.04548930f,
    -0.03795246f, -0.02547144f, -0.01776588f, 0.02061403f, 0.00333612f, -0.05541093f, -0.00998513f, 0.01574957f,
    0.00752417f, 0.03166007f, 0.02346343f, 0.02289234f, -0.01578969f, 0.03863879f, -0.02114910f, -0.01598206f,
    -0.00740987f, -0.03314982f, -0.00410861f, -0.00845400f, 0.01779363f, 0.00061874f, 0.04656550f, -0.02065239f,
    0.00701220f, 0.02029148f, -0.04681985f, 0.01903512f, 0.00119689f, -0.03365785f, -0.03861978f, -0.04557773f,
    0.00764763f, -0.04148431f, -0.02573783f, 0.00223793f, -0.02847434f, -0.05114141f, -0.01979327f, -0.01400858f,
    -0.02869130f, -0.01162685f, -0.00468333f, -0.04210193f, -0.00712696f, 0.01703626f, 0.02029643f, 0.03325596f,
    0.00690683f, 0.01495782f, -0.00068592f, -0.02360300f, 0.04834431f, -0.00330073f, 0.01839605f, -0.05070929f,
    -0.01832923f, -0.02320134f, 0.01745277f, -0.02942334f, -0.01223833f, -0.01951316f, 0.01759201f, 0.01512397f,
    0.03937380f, -0.03107553f, -0.05641658f, -0.00870698f, 0.03852229f, -0.04975326f, 0.02626668f, 0.00827162f,
    -0.03501202f, 0.03985014f, 0.03265154f, -0.01631615f, 0.02670933f, -0.04993435f, 0.02698067f, 0.04042110f,
    -0.00905463f, -0.03739778f, 0.02513086f, 0.03121071f, -0.01308432f, -0.02726167f, -0.03862052f, -0.00663848f,
    0.03057106f, -0.00858132f, -0.05490753f, 0.03930073f, 0.02816276f, 0.04086121f, 0.02340510f, -0.05226009f,
    -0.04999948f, -0.05211008f, -0.01603437f, 0.03433806f, -0.00502030f, -0.01551706f, -0.05333442f, -0.02003993f,
    -0.01070495f, 0.01068488f, 0.04072589f, 0.02104376f, -0.00083065f, 0.01241955f, 0.01262423f, -0.03817680f,
    0.04527378f, -0.05411821f, 0.05044894f, 0.02749892f, -0.00046164f, -0.00296234f, 0.00665840f, -0.04517176f,
    -0.03867505f, -0.02468622f, -0.02178070f, 0.02082938f, 0.03302885f, -0.05606837f, 0.00272862f, -0.02251896f,
    0.03961286f, 0.00909710f, -0.01411801f, -0.00750734f, 0.02561665f, 0.04903521f, 0.02774461f, 0.00079323f,
    0.01973674f, -0.01573602f, -0.03084302f, -0.01282210f, -0.01861281f, -0.03745249f, -0.04099724f, -0.03843179f,
    -0.03062191f, 0.01057727f, 0.00879051f, -0.04202276f, 0.03338452f, -0.01249593f, 0.03908986f, 0.02531782f,
    0.00271744f, 0.02483269f, -0.00330415f, 0.01718561f, 0.04194432f, -0.02212059f, -0.05068640f, -0.00744462f,
    -0.05301903f, 0.02760324f, -0.01181254f, -0.00207219f, 0.01332749f, -0.04675451f, -0.03690041f, -0.03071884f,
    -0.04933469f, -0.02506356f, -0.04353192f, 0.04958479f, -0.01321729f, 0.00461058f, -0.02677859f, 0.01712006f,
    0.05093584f, -0.00954816f, 0.03579856f, -0.01120374f, -0.04647384f, -0.02514381f, -0.03175237f, 0.04641894f,
    0.03379883f, 0.01792193f, -0.04506847f, -0.01229250f, -0.01753280f, 0.04191732f, -0.03617268f, 0.01477911f,
    -0.03951108f, -0.00352662f, -0.01547505f, -0.02615216f, -0.02773833f, 0.01179688f, 0.01731768f, -0.01245019f,
    0.04280199f, -0.04916819f, -0.01212636f, -0.02336154f, -0.04373754f, 0.04709447f, -0.03589476f, 0.03230591f,
    -0.04054335f, -0.00984787f, -0.01009112f, 0.02935334f, 0.01729260f, -0.00972824f, -0.04314515f, 0.04493944f,
    -0.01709914f, 0.02797236f, 0.04850514f, 0.02713033f, -0.03744347f, 0.00291633f, -0.01625220f, 0.02269287f,
    0.00182478f, -0.00024437f, 0.03411369f, 0.00699721f, -0.04058129f, -0.00735535f, 0.04594325f, 0.03225683f,
    -0.00405356f, -0.04206967f, -0.02664666f, -0.03245941f, -0.03478692f, -0.04939326f, 0.00476304f, 0.01946602f,
    -0.03436383f, 0.00943815f, -0.02768852f, 0.01870088f, -0.02125086f, -0.05025758f, -0.00414271f, -0.02293493f,
    0.06354743f, 0.06657916f, 0.02930079f, 0.06209717f, -0.06772520f, -0.03504388f, -0.02944337f, 0.13526371f,
    -0.03061964f, 0.03260095f, 0.04188822f, 0.11751106f, -0.03690796f, 0.14061055f, 0.00204821f, -0.02025335f,
    0.00397207f, 0.09927309f, 0.00558072f, 0.03101124f, 0.00717737f, -0.02816824f, -0.03462597f, 0.01396905f,
    0.01237592f, 0.03360376f, -0.02808047f, -0.01990797f, -0.06141846f, -0.04810560f, -0.01829922f, 0.05832695f,
    0.02596795f, 0.07487676f, -0.04215257f, -0.00872233f, 0.08007382f, 0.03589568f, -0.01716892f, 0.01634292f,
    0.00052445f, -0.00987744f, 0.08879840f, -0.03396624f, 0.00801589f, -0.00897396f, 0.10551812f, 0.03565893f,
    -0.12305863f, -0.13114242f, 0.06340592f, 0.11458977f, 0.08110856f, 0.20037785f, 0.05467587f, -0.02701706f,
    0.15422219f, 0.14474230f, 0.07017314f, -0.18551785f, 0.03862584f, -0.01827898f, 0.16142547f, 0.06141929f,
    -0.08174572f, -0.11288182f, -0.02379579f, -0.06086130f, -0.05389794f, -0.04190031f, 0.06565273f, 0.10759354f,
    -0.01704627f, 0.07180713f, 0.06050899f, 0.02407462f, -0.05042667f, 0.02837921f, 0.11228117f, 0.11726482f,
    -0.03480278f, 0.00857875f, -0.05059991f, 0.06730044f, -0.20058922f, -0.00834840f, -0.01263439f, 0.11088271f,
    0.12475509f, 0.05192271f, -0.23104268f, -0.07157476f, -0.02866029f, -0.05056300f, 0.09715646f, -0.13951491f,
    0.03312668f, 0.03011688f, -0.01732666f, -0.07353522f, -0.10230923f, -0.09536317f, -0.10696255f, -0.14812677f,
    -0.12691930f, -0.03514563f, -0.11244583f, -0.11604045f, -0.00980538f, -0.03166936f, -0.02936294f, 0.01715592f,
    0.03680057f, -0.01703520f, -0.01119334f, 0.02978693f, 0.00855448f, 0.05261266f, 0.01747182f, 0.00753473f,
    -0.05785922f, 0.03172697f, 0.01813483f, 0.06221289f, -0.02578098f, -0.04408742f, 0.01447054f, 0.07717350f,
    0.04775950f, 0.03468047f, -0.02873136f, -0.01064181f, -0.08857935f, -0.05822245f, -0.12543112f, -0.15051761f,
    -0.13988186f, -0.09443414f, -0.09738679f, -0.06654906f, -0.14552349f, -0.21273535f, -0.15343438f, -0.17875353f,
    0.08052656f, 0.09157358f, 0.04878784f, 0.08336791f, -0.07703375f, -0.12382955f, 0.02134727f, 0.11911924f,
    0.01181092f, 0.03602349f, 0.07664457f, 0.03085405f, 0.02938391f, 0.13010007f, 0.02845060f, -0.04341325f,
    0.09589536f, 0.13587388f, -0.01058116f, 0.18266881f, 0.04501450f, -0.04219498f, -0.01305394f, 0.09584635f,
    0.00707543f, 0.07379922f, -0.00449045f, 0.04824963f, 0.00576998f, -0.00989732f, 0.03469745f, -0.05458111f,
    -0.09224476f, 0.14377460f, -0.03061789f, 0.17273869f, 0.13394555f, -0.05188803f, -0.04392765f, 0.12101149f,
    -0.21596341f, 0.11847001f, 0.09318001f, 0.06184968f, 0.07940102f, 0.14193483f, -0.01517478f, 0.05724147f,
    0.00396986f, 0.01227241f, 0.00952084f, 0.02098055f, 0.00587619f, 0.01227997f, -0.01082383f, 0.02332952f,
    0.07640540f, 0.07255892f, 0.11650176f, 0.11409359f, 0.00706021f, 0.08241201f, 0.09779942f, 0.05378607f,
    0.04515446f, 0.08547918f, -0.08544532f, 0.05396379f, 0.08573284f, 0.11739654f, -0.09704363f, -0.00214561f,
    -0.05144949f, -0.02826225f, 0.15757628f, 0.11643139f, -0.02872407f, 0.11641147f, 0.03210348f, 0.07373632f,
    -0.00597597f, -0.01780216f, 0.01624413f, -0.05281772f, 0.03882164f, 0.08670562f, 0.05455886f, 0.04320270f,
    0.07957599f, -0.00211087f, 0.02240720f, -0.04174442f, 0.05654177f, 0.12993121f, 0.06274148f, 0.06050297f,
    0.13789889f, 0.02623926f, -0.09584282f, -0.11285284f, -0.10445680f, -0.14899854f, -0.00786993f, 0.10432468f,
    -0.13540566f, -0.20551331f, -0.19556811f, -0.09951694f, 0.01297918f, 0.14617987f, -0.08862368f, -0.27156222f,
    0.19471422f, 0.01007421f, -0.04382858f, -0.05904013f, -0.11167316f, -0.09318074f, -0.12638630f, 0.11956921f,
    -0.03820675f, -0.01631712f, -0.01469622f, -0.00743743f, -0.00553561f, 0.06626067f, -0.04026535f, -0.05360774f,
    0.04537531f, -0.00142302f, 0.08157732f, -0.01160736f, 0.01314494f, -0.04997544f, -0.03289234f, -0.01356255f,
    0.02374904f, -0.08110920f, -0.01247168f, -0.04690909f, -0.01096221f, -0.14029232f, -0.17857867f, -0.14339353f,
    0.16208652f, 0.24185145f, 0.00580681f, 0.02844859f, -0.15778308f, -0.38241273f, 0.00278463f, 0.08670900f,
    -0.00930216f, -0.15633249f, -0.10465794f, -0.04356039f, -0.06628948f, 0.10152821f, -0.05951980f, -0.12470208f,
    0.04431212f, 0.14497218f, -0.00820273f, 0.04215073f, -0.00082647f, -0.09393002f, -0.10540450f, 0.01480594f,
    -0.00644570f, -0.10903618f, 0.06595232f, 0.01145948f, 0.02219037f, -0.00575167f, -0.05193904f, -0.13584962f,
    0.03882722f, -0.04020494f, 0.07742343f, 0.06666489f, 0.20242807f, -0.05069193f, -0.07277036f, -0.16209510f,
    -0.01151333f, -0.00263992f, 0.13962950f, 0.04904003f, -0.05433547f, -0.02873245f, -0.01261810f, 0.00110064f,
    0.01175120f, 0.04318326f, 0.00976900f, 0.11736955f, 0.07264332f, 0.00873855f, -0.01326065f, 0.05910376f,
    0.06210031f, 0.06711183f, 0.08241297f, 0.12928417f, -0.04137858f, 0.09998176f, 0.11081509f, 0.04921740f,
    0.07828740f, 0.15908387f, -0.00141671f, 0.05955449f, 0.12818940f, 0.04586094f, -0.01685006f, 0.07838436f,
    -0.02794960f, -0.00087138f, 0.14743571f, 0.11140333f, 0.14659443f, 0.11084437f, 0.09928369f, 0.04143922f,
    0.04205204f, -0.00546214f, -0.08255798f, -0.01287704f, 0.12401163f, 0.09811755f, 0.04982893f, 0.17257640f,
    0.16433580f, 0.03859536f, 0.04488510f, 0.07777341f, 0.05349562f, 0.15936734f, 0.14994191f, 0.00666420f,
    0.00887809f, 0.00238289f, 0.04142164f, 0.05682950f, 0.12248174f, 0.10293828f, 0.10606940f, -0.02571691f,
    0.03641653f, -0.03193438f, 0.03727069f, -0.00520525f, 0.09444417f, 0.00907637f, 0.07697447f, 0.02836782f,
    0.03186284f, -0.00560360f, 0.09859188f, -0.03398742f, 0.04260387f, 0.11177896f, 0.07663471f, 0.02981568f,
    -0.03181737f, 0.05137330f, -0.03003877f, 0.07893009f, 0.11009269f, 0.05361000f, 0.09786203f, -0.05483804f,
    -0.04394822f, -0.04038867f, -0.00267274f, 0.02663208f, 0.01284664f, 0.02924846f, 0.01212064f, -0.04144850f,
    0.04585663f, 0.09015296f, 0.09623989f, 0.09390699f, 0.06016598f, 0.07443124f, 0.07723257f, 0.02542425f,
    0.10854965f, 0.16516355f, -0.07763888f, -0.03586032f, -0.05217984f, 0.00210939f, -0.11481046f, 0.03416123f,
    0.00407189f, -0.05014319f, 0.03806938f, 0.14261404f, 0.10543713f, 0.00179185f, 0.01601345f, 0.01344648f,
    0.15213986f, -0.01196000f, 0.04915699f, 0.07420280f, -0.18413246f, -0.24013531f, -0.36252341f, -0.15961689f,
    0.15345298f, -0.12034360f, -0.07595789f, -0.04139464f, 0.04814284f, 0.10031314f, -0.13629152f, -0.27319705f,
    -0.03705462f, 0.00973283f, 0.11036588f, 0.02111236f, 0.12761994f, 0.05388550f, 0.03058796f, -0.22077942f,
    -0.03599123f, -0.12254943f, 0.20374885f, 0.10794007f, 0.00843107f, 0.04080503f, -0.03555200f, 0.16367456f,
    0.06433851f, 0.07712488f, -0.00574282f, 0.03882848f, -0.02242531f, -0.05754090f, 0.01592362f, -0.06052553f,
    -0.01718819f, -0.09611043f, -0.06160994f, -0.01467670f, -0.11586425f, -0.09755026f, -0.15442346f, -0.09630059f,
    -0.02194683f, -0.07473452f, -0.14434648f, -0.11330460f, -0.18239576f, -0.19298275f, -0.19089988f, -0.10758781f,
    -0.10321781f, -0.10171825f, 0.04717147f, -0.10930711f, -0.09258763f, -0.07299677f, 0.10534992f, -0.00923632f,
    0.01474567f, -0.06281739f, 0.02759594f, -0.11693829f, 0.10780758f, -0.18070707f, -0.03998184f, 0.02603609f,
    0.04949835f, -0.19410984f, -0.13085735f, -0.29927894f, -0.25866577f, -0.12669328f, -0.11041336f, -0.10173108f,
    -0.08588549f, -0.08063181f, 0.01582723f, -0.00120040f, 0.06649336f, 0.12246953f, 0.03856778f, -0.04392143f,
    0.00166090f, -0.03163012f, 0.02107044f, 0.00139593f, 0.14068419f, -0.06952315f, 0.10712516f, 0.01990921f,
    0.05403459f, -0.09090337f, 0.08585160f, -0.13490079f, -0.01168226f, 0.07979713f, 0.02553463f, -0.06871369f,
    0.05193685f, -0.20761244f, -0.00001219f, 0.01934854f, 0.08313888f, 0.03041920f, 0.00127837f, 0.00715169f,
    0.19104894f, -0.09632894f, 0.07095522f, -0.17699501f, 0.03708440f, -0.01624470f, 0.20362449f, -0.21442968f,
    0.19013822f, -0.07362081f, 0.10288056f, -0.00571804f, 0.00197558f, -0.08145625f, 0.11905134f, 0.04913273f,
    0.03803832f, 0.00496782f, -0.00237513f, 0.00320854f, 0.02222050f, 0.08728830f, 0.17323731f, 0.02170474f,
    -0.00794063f, 0.01835169f, -0.02071275f, 0.04245210f, 0.08376615f, 0.07054297f, 0.06402200f, 0.03413554f,
    0.04840432f, 0.00970763f, 0.13255054f, 0.07377312f, 0.03042584f, 0.07205404f, 0.02498734f, -0.07417943f,
    -0.00801512f, 0.14888921f, -0.13419363f, -0.17465828f, -0.06963784f, -0.15011126f, 0.02527760f, -0.08304352f,
    -0.04271024f, 0.02552010f, 0.06584594f, 0.05416143f, -0.08417305f, -0.09980980f, -0.02253847f, 0.00840025f,
    0.00761740f, 0.11507200f, 0.02068139f, 0.10450609f, 0.11749120f, -0.03417769f, -0.03098763f, 0.13271059f,
    -0.02832542f, 0.09035509f, 0.12065221f, 0.17657121f, 0.11424226f, 0.13971066f, 0.02420769f, 0.04491262f,
    0.03441890f, 0.20624036f, 0.25016546f, -0.03492716f, 0.11920552f, -0.21137688f, -0.09094060f, 0.36262283f,
    -0.05277169f, 0.02932935f, 0.07815621f, -0.19975390f, 0.02543970f, -0.00173739f, 0.02823588f, -0.07715517f,
    0.09238961f, -0.16199936f, -0.01995025f, -0.03561048f, 0.07946581f, 0.01730307f, 0.17022869f, -0.05741619f,
    0.04725836f, -0.01447163f, -0.06778792f, -0.08917057f, 0.09105558f, -0.01536579f, 0.02729509f, 0.03454216f,
    0.04195685f, -0.08193167f, 0.02443556f, 0.06008070f, -0.08257253f, 0.19327515f, 0.20484595f, -0.03256192f,
    -0.00470211f, -0.13607845f, 0.24350064f, 0.24494088f, 0.36123675f, 0.43006915f, 0.02839309f, -0.02096203f,
    0.00510764f, -0.03908736f, 0.08454036f, 0.04275003f, 0.08401424f, -0.05235071f, 0.05093688f, 0.07693464f,
    0.06181027f, 0.02620219f, 0.09533761f, -0.00687266f, 0.08415386f, 0.14249998f, 0.22836240f, 0.05614864f,
    0.06929611f, 0.08817088f, -0.07201072f, 0.01672087f, 0.12076072f, 0.06683467f, 0.05375525f, 0.30428925f,
    0.05230603f, 0.09610329f, -0.02250266f, -0.04589567f, -0.13943022f, 0.21123707f, 0.13110793f, 0.14265889f,
    -0.05487105f, 0.03247616f, -0.00964941f, 0.14936236f, 0.14669429f, -0.07494641f, 0.01289269f, -0.02585373f,
    0.03572742f, -0.01941051f, -0.02003299f, -0.01159629f, 0.05639736f, 0.07789064f, 0.04621532f, 0.04987099f,
    0.06721973f, 0.04201446f, 0.06214784f, 0.05265868f, 0.12205539f, -0.01014614f, 0.12162016f, 0.06623282f,
    0.09243585f, -0.04047066f, 0.13835332f, -0.02893735f, 0.01347490f, 0.03226655f, 0.09939480f, -0.08109037f,
    0.11228168f, 0.05107849f, -0.22145014f, -0.05824269f, -0.14260557f, -0.10720267f, -0.11532969f, 0.05848274f,
    -0.03608178f, 0.04538476f, 0.05553315f, 0.19227833f, -0.05490831f, -0.13696375f, -0.00214763f, -0.11203700f,
    -0.01515017f, 0.12006676f, 0.04039618f, 0.03617823f, 0.11561025f, -0.02031828f, 0.06803928f, 0.15135562f,
};

const float fc1_bias[] = {
    0.07756200f, -0.03196504f, 0.01531217f, -0.05337659f, 0.08527815f, 0.01203931f, -0.03823664f, 0.08912548f,
};

const float fc2_weight[] = {
    -0.04466749f, -0.13731858f, -0.06782725f, -0.32894787f, -0.47392759f, -0.34349620f, 0.03361747f, 0.11936791f,
    -0.46277806f, -0.16491631f, 0.07398272f, -0.15887585f, -0.52058756f, -0.11012994f, 0.46822336f, -0.30834877f,
    -0.58131993f, 0.26713395f, -0.00454112f, -0.18439941f, -0.03940137f, -0.27027768f, -0.07483155f, 0.20305771f,
    0.31889737f, 0.07752470f, 0.30021968f, 0.28797081f, -0.14271072f, -0.12083507f, 0.03864073f, -0.38112316f,
    -0.31175038f, -0.21674363f, 0.25137085f, 0.26586333f, 0.09318618f, -0.30716375f, -0.46508104f, -0.54541588f,
};

const float fc2_bias[] = {
    0.13052076f, 0.02593448f, -0.33978707f, -0.09765171f, -0.13484848f,
};

#endif // MICRO_TEMP_NET_WEIGHTS_H
